// Auto-generated from weights CSV -> Q32.32#include "nn_policy.h"
const q32_32 W1[50][6] = {
    { 3989080594, 2760975993, 202123396, -4277173919, 1636489090, 1826094912 },
    { -3210735342, -1289024716, 1474921366, 1702802178, -1352316409, -6242868214 },
    { -959708274, -201355099, -619004670, -1783799410, -352666351, 1952672242 },
    { -4955166763, -403592812, 1207969729, 25176937, 2746756068, 2528630124 },
    { -1636612092, 1979512537, -7581975040, 1030040099, -1899409156, -341819151 },
    { -2911686969, 3506589969, -3521327632, -1075563025, -82237062, 3951540227 },
    { 1308029747, -689428464, -2194921466, -3229435467, 2481411737, 530901875 },
    { -3521908451, 773032618, 124861248, 3785876868, -1937064212, 2631634715 },
    { -3178241917, 1805155805, 4265627329, 1029897753, -3636895975, -5227949784 },
    { -1273357338, 1657860854, 1598878033, 1133245531, -1268935920, -3788109150 },
    { 2367372095, -503173224, -3126971065, -1808892905, 4534866627, -3903269702 },
    { 1338353178, 1685876396, 312652891, 150684752, 1679216143, -3100083487 },
    { 164155613, 213185404, 4133731364, 1181597231, 387628038, -2631723210 },
    { 277721904, 1144943665, 5590704597, -1177407763, -684756812, -2320537041 },
    { 109634473, 1375644724, 1352415773, 173621401, 2706899870, 3901593938 },
    { 4902151181, -1874072061, -1806235396, 1931661931, 1402404075, 1956797061 },
    { -2969146774, 567937444, 853348935, 1435616232, 4171965143, 1115015071 },
    { -4387715200, -3368925700, 2913062513, -1785235414, 3088748583, 3668139537 },
    { 5962496061, 4676060877, -2098909972, 954565082, 404275614, -3170255468 },
    { 4523715946, -2846206569, 313561137, -569277098, -1248248242, -2344053356 },
    { -791063480, -577261091, -2950890921, 57999836, -2955478006, -371231899 },
    { 1699026986, 964117305, 1516955940, 3010139402, 4547863621, -137186766 },
    { -1265619740, 2455418402, 4109754028, -218942973, 1075963609, 1243499387 },
    { -1280001404, 4518685127, 609674344, -3361053999, -445438854, 644022689 },
    { -1789780973, 1377280582, -2515939937, -4034994358, 2514421729, -235965621 },
    { 561544269, 3946791961, 4893886804, 706132616, -203142890, -2583133291 },
    { -271439214, 182909386, 994343995, -1792409591, 1193946214, 556262614 },
    { -699642012, 2702112762, 2013132611, -3139172269, 1898720635, 3619935249 },
    { -464666709, -2912444488, 2565993797, -1903541806, -508937867, -339582148 },
    { 5460777249, -3985448560, 336190963, 1252099528, 2194199899, 182982263 },
    { 1872954737, -516802485, 1776765943, 1839995622, -4489016920, -3141836185 },
    { -2075813116, 2262173961, -1139045240, 2135280389, -4159774527, -1808075466 },
    { 1440710718, 402520024, -1890299948, -5078057624, -1486530851, -1485729226 },
    { -2216744148, 699228979, -1603392506, -2735118427, -2097480266, -1433273116 },
    { -904092181, 1617923417, 342517448, 2675671923, -492084470, 54701927 },
    { 2497718958, -3112570316, 5025725063, -811642411, 1067641358, 994707214 },
    { -1190871000, -1225196491, 754101261, 2350279462, 1115917637, -2195763634 },
    { -1378643252, 572610855, 3238042198, -3849476062, 518876918, 1820327664 },
    { 119491787, 419667084, -555210295, 2027379492, -822500172, 3728542028 },
    { 1145037948, 3206124489, 2307772910, -4398278189, -681490051, 643354957 },
    { 1857110463, -1241363666, 4204595336, -2528857465, 1482986627, 174568859 },
    { 493893184, -1299829981, -678781431, 915357817, 1632251696, 1409690041 },
    { 808976455, -5394308829, 3858954087, -1439769562, -3546305541, -2604231813 },
    { 2087875218, -2340231843, -1413047597, -2083434995, 1724654698, 575079590 },
    { 2364162142, -461567481, -1323260342, -879855560, 139771409, -1000477174 },
    { -4193026440, 1789211861, -1383995051, 1824714861, 264439960, 937336891 },
    { -3795579123, -166416306, -2128998594, -939443308, -3711845350, 2898427815 },
    { -6134832286, -1394372261, -889395240, 3782177705, -2354407138, 1995375333 },
    { 2725918159, 934461485, -22830935, 2330887434, -2239668889, -519305687 },
    { -4655283324, 1323540986, -33318852, -3574677231, 301487491, -3265167686 },
};

const q32_32 B1[50] = {
    -2, 0, 15, 2562, -1506, -40, -46, 53, 52, 30,
    62, 0, 15477, -46860, 0, -722, 17, -84, 208, -77,
    0, 0, -26, -41, -3, -19, 42, 1, 128, 192,
    20, -132, -199, 1, -1970, -387, -12060, 1136, 8773, -313,
    -1125, -151, -6, -3883, -1314, -137, 0, 15, 4379, 3797
};

const q32_32 W2[70][50] = {
    { 544684097, -896469297, 399116627, 9090507, -217743366, 595962669, -1436973226, 703414175, -363950247, -664786813, -810940658, -82240848, -400048871, 354138156, 828868732, 67885410, -301706774, -577165010, 22518753, 1446683863, -872438519, -63738948, 1471176755, 1052466372, -135461883, 1350987607, -286246400, 81231258, 234737730, -716860023, 626515646, 278300843, -354704047, -1504498626, -784728746, -440101773, 1077487977, -227275393, 443066264, 1446648367, -747074179, -178235107, 1187539355, -882834762, -151465605, -370219455, 352723204, -1711904377, -491684100, 58141052 },
    { 124863095, 528829571, -727269500, 143247480, 1285750705, -333265821, 1491942596, 1353885546, -937645575, -229196772, -214094263, -1011442773, -47649354, -174145569, -777574645, -810870813, -414744535, 638662467, 1608097354, 599639872, 923898652, 39006302, 1686849821, -100156668, 14549236, -1670114519, -575998358, -80276430, 1001556423, 202417817, -170634149, -292112769, -383893515, 978452770, 1172717455, 1630817705, -383912294, -561776611, -51974606, -474157354, -837739570, 929058175, 15151397, -1291477562, 711276766, -792117184, 1033198918, -466196802, 241291035, -299733917 },
    { 1266706053, 822848036, 258475254, 705097329, -868515321, 98710968, 1020894758, 959752148, 1080895145, -1091489768, 1556530517, 32836391, 2135004635, 435432421, 399571531, 772466508, -418950659, 938322737, 1453559439, -669969904, -1750832748, -972042867, 1479929156, -546494038, 570674646, 52382298, 803642788, -1239808505, 1302086211, 206638066, -31815558, -357687300, 188667313, 793683112, 887855459, -1488414968, -839525361, 1063017052, 76834651, 451874174, 687727805, -513165620, 575735116, 137059223, 1011991255, 219044924, 1028120574, -650142966, -491163274, 545839509 },
    { 1147586715, 176844671, 691094415, -633668936, -456483822, 251060294, 332138455, 116130129, 1558524357, 833613289, 471152054, 369447509, 387934964, -49504785, 110905048, 215711461, -68720742, -56127553, 320495975, -123687383, 1351016562, -530791470, 14992014, -928865065, -722803850, 1116567904, 59437387, 1315472102, -1277156506, 430774151, -1059386999, -657337318, 486139188, 1859625194, 748965614, -803766300, 293596357, -380401430, 378680973, 245488289, 734281278, 485895462, -120078321, -833649027, 683852781, 256288413, -138277105, -962911302, 119890418, 1021166463 },
    { 971417228, -191249330, -249842792, 866573934, 1397094990, 49082958, -1397607725, 1811102721, -571153800, -101987530, 349322867, 1487379118, -241882109, 212218576, 46473977, 1681434394, -596544146, 675216600, 69559793, 784943001, 457944554, -241428935, -1096570587, 315839301, 396921549, -91859643, -664020350, -396286565, 562451545, -27280322, 1205981526, 12197806, -164034467, -179273247, -2653817428, 1596255481, -897847649, -1008257341, -340364436, -364247615, -486192196, 90546219, 292214785, -471837862, 2110352318, -153397093, 2017475519, 173892515, 925784367, -988391593 },
    { -2335594621, -1090667636, -455881602, 884039555, -285566597, -1646009445, -1446753369, 410512849, 87098721, -238345995, -1078561145, 478191128, 222457461, 1826232752, 695177351, -1170579895, 134962171, 1008761393, -166308444, -749883122, -140671325, 725820451, -40420269, 839682560, 112830406, 1094888013, -717186813, -135328945, 150144800, 1530514063, 471019251, 1198056348, -903618455, 1592908805, 314038271, -678432668, 937662156, -422824758, 950162734, 190141775, -401762337, 920955063, 689988823, 160080753, -637675974, 1528704795, 631561700, -629289373, -1252056685, -781609564 },
    { 766618389, -1129621586, 30478830, 755695299, -341685180, -221442528, -639790871, 1878959212, -372999746, 538804967, -7036485, -286689300, 1084446347, -261384433, -412451830, 300160581, 1083284658, 388773030, -22381863, 548075689, -770803174, -557026558, 1681330760, -98660923, -1209268557, 879190668, -591918922, 1549377312, 204676614, -121391033, 486038000, -322689984, -170811858, -902221155, -1601910098, 943948660, -1469835131, 187284633, 1045913743, 1121332411, -1383790328, -550919114, 771602343, -1007023049, -423481899, 481849952, 1266642051, 799266722, 599154211, -239978629 },
    { 829892268, 450351735, 219363679, -203838101, 1803412030, -475733422, 647330010, -478677150, -2155038676, -169021451, -82177524, 398120514, -24682066, 432478467, 206736547, -875854219, -632951698, 755238293, -814821825, -1158064569, -228739286, -188002982, -1100370704, -358338102, 884376409, 40981907, -2239918491, -537017683, -13363391, -493503017, 732946115, -204411592, -339579690, 49942916, 1094076769, 93272642, -366593181, 68841390, 36738163, -375802405, -867892452, -5242324, 107964817, -358516053, -1387690374, 624424172, -28047563, -575196468, -778410599, -1425231683 },
    { 1043437027, 483593461, -1256376736, -837893319, 466566875, -992518344, -1565453996, -25523696, 253366231, -647119092, -668258949, -261310741, -940740984, 1476547970, -316518160, -504811230, -1516577974, 824262273, 66807402, -731351052, 1479547182, -134047668, 451342176, 1289499350, -945911813, 989625138, -777748386, 101340939, -420209599, -616556181, -601714423, 317329602, -516379128, -136689090, -294263328, -535489703, 2257951985, -231469854, 1228746183, -744957406, -1931759856, 184655021, -780775085, 1602671735, 166967645, 166165376, 19533657, -84284994, 749789666, 222611285 },
    { -1321345681, 301108495, -1106110609, 1795187893, -166378916, -386027752, 18221176, -157111674, 310633520, 635618645, 663776064, 1670553866, 46500019, 447957027, -443467368, 293664425, 1343551322, -738739002, 464678893, -879210523, -361549168, 1127201649, -322293668, 1113086098, -377702235, 470436215, -322573313, 934618588, 949724389, -420324231, -1105322590, -1282153257, -666703723, -71072021, 1411748654, 1400257156, 275439054, -430652867, 23710832, 389096435, -230903965, 910460495, -578190798, -578574414, 963424152, 93567211, 74510777, -976838732, -238286754, 29709124 },
    { 1070770385, -713547802, 853380182, -991779123, 103079452, -645393174, -479524805, -1996366, 1628287072, -858247768, 22046842, 1104587145, -1381959771, 359625717, 541152850, 585667602, -161231723, 550675638, 63113528, -541111878, 428971235, -145231319, 52445706, -2420483531, 741614820, -776674146, 2076888531, 823912257, 430332058, -1060029391, -670130868, 314240550, -455677280, 1085802534, -1099639239, -959565773, -433416314, -205381870, 1090955927, 65167977, 558328096, 632825999, -173264259, -1734270411, -2355370850, -591510521, -1078672930, -179878791, -927577011, -825506558 },
    { 1096903425, -709165977, 564638201, 400472610, -563888062, -1216750447, -719829410, 1239189323, 1658889047, 62994818, -228621409, -410025067, 916340040, -20535494, -28258645, 77417343, -726032955, 1203988040, -562063181, 174981876, 229605844, -134007442, 136946512, 67054555, -1288637724, 1652366127, 756236564, -264066815, -344931855, 396057528, -1358054964, 83007367, 1064677769, 1192875093, 1488625042, 539464103, -520952390, 601739950, -164451498, -78133199, -1640335358, 962844595, -213118724, 912645131, -699914932, 224301191, 7021156, -1191772378, 66398400, -63159869 },
    { 896192557, -1811004598, -377919786, -158421568, 1542260829, 1068860092, 781582606, -343429716, -593855275, 889111005, -970237726, 280535205, 43359529, -33634121, 1596606287, 754729219, -249184059, -251422067, -141897804, 350113839, 580449813, -272942366, -1002682670, 438170684, 74054141, -966134082, -932259136, -376314376, -1083875979, -1821942311, -138510323, 1315834526, -2704560821, 356404079, 294736929, -275839840, -1155513465, -1074990440, -816459353, 218106767, -597011994, -1260800811, 750096191, 2033680706, 340844429, 735920671, -662276950, 593496123, 71674777, -285459581 },
    { 1390034668, 51453944, 2064218316, -505106266, 485154970, 565147362, -456568923, 952891229, 54805064, -928136026, 716413222, 376771763, -227717783, 1316223216, 498778731, -431337086, 463981662, 317936054, -303480418, 927305045, -1336245950, -814697306, 358883151, -1039260, -282362606, 120615708, 627485063, 131431176, -1818115000, 533178809, -475997668, -74807910, -2774675536, -471064273, -959700871, -89494538, 397959359, 827432174, -24725285, -522729246, 308242681, 910920285, -1225169526, -724556753, 466974238, 971520101, -659750363, -227248967, -62936533, -24344599 },
    { -727246934, 100246690, 267320047, -692159274, -949453612, -369471331, -279343583, 308939294, 1028283429, -980929123, -921865269, -618876313, 282474965, -243956180, 977317023, -150479773, 1483247007, 867349056, 26685666, 520697531, -1925260864, 295519157, -910848307, -26285654, 157926539, 673397807, -1147439791, 865033040, -326094465, 278666914, 731149759, -107547121, -1075984981, -142283791, 96910253, 211583154, 764562075, -740979196, -632027840, -422985066, -103914488, -898015583, 1398727374, -894054899, 366282492, 937275299, -1592106928, -2084531390, -690876551, 685334932 },
    { -219041163, 353048086, 234450521, -1881982924, -386596154, -34540455, 817203656, 1301301796, -227354305, 799255530, -237574395, -645055477, 1400856060, -390489843, -540803193, -500730215, -386503260, -157356406, 1765410901, -336318081, -858373590, -438117482, -11575205, -430466412, -359106645, -521987652, 335825296, -109726645, 704852432, -744946386, 1852038440, -127552897, -643486752, -796064962, -524803699, 1104898171, 615992753, -1355885928, -494838419, 1049037342, 218418476, -48812293, -516323187, 1066000610, -560519650, -58934762, -1419566650, -93620371, 585180024, 331218666 },
    { -583184204, 1445040112, 653744988, 383688030, 609551517, 1001322689, 968432509, 149201682, -29504919, 134219920, -765984170, 382974511, 881168249, -280824631, 266061855, -985708309, -893240946, 485649675, -1678703824, -126036616, -338633875, 1081645366, -1653067996, -621961319, -1171839398, -370718842, 506643613, 108873027, -329586848, 454237580, 442128323, -19441950, -549239280, -867135577, 1275872667, -143328511, 12681036, -937371668, 71502225, 1075105199, -104287478, 205967424, -1539547325, -1763926444, 205529388, -1212301583, 833776309, -434194031, -1885724836, -315028522 },
    { 919331608, 4827767, -1189305968, -774466075, 145615886, 15904527, -525441107, 650026839, -1504451015, 1445519705, 1320118592, -6591058, 1919928387, 705305512, 896685277, 213280332, 881611876, -998119604, -753407820, -1292265386, 352249880, -1128124764, 388149747, -146965914, 136110524, -920803635, 985932884, 329721859, 110222286, 290236183, -1093685238, -713856470, -628576806, 504131029, -619647964, 633445411, 1341622488, 166191318, 733261147, -544554229, 1846184771, 835329248, 800982325, 393519448, 1025259286, -1423955519, -779730536, 174893728, -325919721, -1010982365 },
    { 1459589549, 482107005, 85950768, -395946527, -945968148, 401434943, 42376502, 869905542, 253483384, -1627768561, 380370156, 389515613, 204636438, 266802314, 118461813, 1990677920, 10520346, 657578837, 1973514859, 755156120, -1061328830, 632604704, -696763507, 1201910421, 1054204969, 866521224, -822912477, 606828678, 442667267, -977085384, -492291587, 1125360092, -411844570, -757223496, -1160044068, -147692162, 585789205, 985962470, 783105977, 798490662, 1034659373, 456337918, 2597263097, 848595351, 187618989, 193815049, 161982771, 318245658, -852028188, -55281205 },
    { 739210009, -1199135077, 382817813, -2098784481, -426969260, 309499439, 282864473, 341450270, -1225849170, 449406376, -381857637, -441642544, 270149446, 1294872831, 1141448463, -340953996, 1375662706, 925331828, -897592575, 227607446, -312012190, 907230633, 473658417, -991281985, -546607837, -159339876, -1166692421, -560148797, -1073453183, 22471531, -556920190, -1189056436, -946009785, -2018721471, -297098870, -404650897, 807475718, 1619310339, -1225856136, -508230492, -915424085, 393298669, -547904217, 78830356, -445648120, 608127250, -1233259520, 1416558081, -400365455, 165727884 },
    { 779243721, 1576349990, 740917428, -830494762, -1404010101, 623232128, -736802444, -646761616, 1062198252, 1460790014, -1167866772, 461513005, 1186939095, 481134792, -591208145, 516368466, 402244114, -496580248, 1698878515, -352252708, 710787857, 321395725, -211608095, -1151195131, -1348383428, -1696154330, -344887792, 1589559347, -604775635, -892552585, 697031184, 897380984, -958406572, 441398979, -23552344, 677086995, -180193354, -386985156, -840140484, 24709203, 235197230, -275724784, -66158030, 1161933459, -373637071, -431588105, -531899933, 443639124, -245376215, -535088672 },
    { -944452889, 1622224602, -179498547, 695425759, -1031538007, -1311682595, -276213691, 738649937, -638929144, -297491655, -194916796, -284419675, 522263325, -287962559, 544114314, -333785326, -897338903, 89835478, -611998929, 2581184294, -1191163407, 669142248, 1577542355, -849970999, 886886404, 1364265832, -5533972, -422940835, -65468864, 594604822, -541095297, 449725534, -1739057001, 1250088230, 292312082, -1755047865, -1213865012, 1040225686, 1361982955, -380852275, -210200991, 363576749, -165544816, 920022434, -676200035, -113425014, 616273866, 1419790988, 419588344, -388066856 },
    { -719416954, -761566377, -836833639, 1030093411, 2174089382, 457672068, 296513603, 1536989779, -358870143, 188713636, -554538996, 530018295, 53273033, -847268096, 397151820, 725800105, -254601731, 210990904, -797446176, 856545347, -1479002164, 286822441, -909228142, -413674674, -606060164, -598461321, -1069446081, 420646564, -951976211, 34995144, 707332809, -445381103, -596918487, 598925094, -248661738, 683658903, 276154414, 487191240, -39785438, -304358322, 1108743872, -559679697, -922524806, 39821236, 2350162411, 63400855, -1004880318, -251157603, 1271267526, -602730676 },
    { -1596087404, 1674461548, -312018809, 542445594, -556974597, 1593971, -674312687, -750735468, 267475809, -1734473371, 444168707, -1281390930, 744254667, -278429046, 472742680, -1270651431, 388022617, 448159631, 104265752, 2239908403, 569984143, 145827556, 194996280, 54235231, 240082445, -534111489, 859524961, -174027585, 213150983, -385321084, -604808465, -1349626831, -307549945, -973328704, 6410859, 30918371, 1095738149, 814483251, 606940105, 474985174, 124316908, 599780961, -887219591, 720438880, 333005653, -2256023911, 70595335, 278141017, 1024878072, 1034005876 },
    { 314784080, 897892550, -328163870, 1202825893, 469550080, 668930831, -970688614, -1630278990, -649479331, -1082333028, 249626873, 1576078421, 192644483, -657271790, 6482198, 809700108, 589329902, 1735202415, 978806192, -1126860542, 225236486, 1042096178, 296365434, -138463393, -641550371, 1362045980, -894488633, -317214318, -899480825, -1134919742, -853019951, -437240771, -249248682, 1551595144, -321620704, 1365454970, -961774979, -320752986, 270909989, -96205608, 41829726, -204943984, 194145536, -332792938, -826446040, 975781236, -748670394, 261187666, -1391309149, -1132722077 },
    { 988324205, 330636049, -593266816, -360855259, -316945682, -569590729, 664500160, -678279796, -896492221, 72720587, -68806868, -368949052, 1029609258, -887305456, -98563326, 442648545, 952259836, 145401931, 468236313, -990394301, -306398555, -1000360000, -14277647, 1037853482, -427447683, -585312910, 2060437171, -302318948, 191828920, -823789465, -262925548, 2298191844, 472319425, -374423612, 207858023, -376086483, 620415057, -883241451, 320477744, 421696581, -1692873266, -737405453, 1031590110, -1272215807, -499006571, -650466565, 549119358, -46595308, 1913457934, -438595810 },
    { 1062810292, -1267584296, 816500057, -1830223133, 488486721, -292758153, -595335603, 126151944, 73557341, -484081830, -207829391, -547101359, 523890691, -1367338260, -730405862, -320441007, 473444713, -241540435, 630331571, 472656107, 177008782, 1237481374, 977772866, -805061429, -127726608, -1061806364, -511666531, -134947630, -217231465, 464480503, -330830504, 192314161, -892283573, -644010533, -841885723, 585201976, 846219093, -545500433, 2239310917, -283247898, -224874089, 494075085, -776855125, 1139873430, -113873675, 130274186, -1740675002, 574654078, -1204445515, 881959623 },
    { 564650544, -512401695, -151763891, 1034174820, 394898942, 149801249, 1427806002, -142274354, 23776541, 355431652, 105495262, 1199847385, 243535930, 1066893486, 42352560, -698738203, -1909522828, -1374165245, -761284168, 362155710, 441089954, -63619175, 456885863, -737515820, 997942128, 1835155209, -1436309114, -336530722, 336717829, -1304087812, 659036216, -634910480, 307754638, 1509050215, -1627835372, -1382183089, 1167754586, -77778130, -50444037, -264504986, -485230133, 602217567, -166387329, -1510640065, -868359105, 818186931, 105219329, -739535463, 207771024, 318161587 },
    { -883013944, 1612922859, -593602983, -590858362, 121987518, -152185665, 644159872, -1284031145, 103693687, -363515341, 532597089, -817150766, 743569198, -579916651, -556804573, 947834004, -841154841, 365202676, -202894244, 283254979, 474380167, -442415531, -924908429, -425809481, -100693716, 798639941, 181660145, -1160230790, -1432722515, 47920342, 1624598010, 461424613, -360835486, -183236524, 818784605, 398234927, 184182628, 384507528, -516652547, -721037418, 959960571, -537925748, -621231166, -778195935, -738271849, 774485774, -1636326841, 153299842, 304639662, 2459003277 },
    { -331969577, -1211197498, -169713316, 599954241, -481810655, -179623824, -453180798, 259374172, 693729589, -809604501, 901910157, -27098304, 2241029748, 921686156, -269156648, 919623253, 674708273, 497172027, -441657137, 1653994726, -864875667, 387615090, 1514325449, -3331205, 74303757, -1136659150, -227538059, 1026302108, 1321933145, 1035080631, -1342550638, 556023856, 191976727, 1485792652, -717022601, 142909181, -841839342, -739569479, -969172167, -425496802, 153616154, 747249289, 2205143786, -1044939418, 1062154066, -66620086, 185055802, 657765251, 1088803617, 867075594 },
    { 182860432, 404606995, -1330424113, 773410195, 68227918, 149911188, 538298321, -314559887, -177205118, 102974233, 583680320, 1007194377, 13252549, -76779519, 295107365, -2258897074, 872329226, 538970766, 1785930771, -201334468, -235355609, -799936189, 184176156, -19095829, 97667199, 62527509, 1026506951, 246086730, -862052760, -841321164, -270900425, -1720671130, -115756224, 517878520, -435674670, 836651252, -1037439808, 468813749, 1454977916, 1285163354, 593398891, 974461677, -393248091, 99511409, -282131958, 184551648, 1935225, 1021875607, -692791382, -1612079367 },
    { -227706993, 460721856, 229669829, -175171164, 476113422, 406798788, -1527579458, 267365490, 155102660, -232402518, 622374013, -689994838, -242999062, 1334456929, -126765658, -1104207564, 207844896, -1037641423, 925976208, 24660484, -924153815, 458688879, -335500780, -11877283, -1332941551, 601673684, -497240497, 894085940, 1402548897, 1875246822, -256320388, -1072886738, 654991335, 1840823, 639299671, 899794818, -1049031569, -207014260, -305599598, 680411668, 147227030, -256464698, 514247702, -171879470, 1029707410, 1884649849, -1309812542, 861085392, 1165557125, 396817487 },
    { 312887545, -20372083, 400710062, -910268540, -686518441, -52715450, 1424735311, -532524680, 152207156, 134316481, -867105466, 497476726, -1341557803, -945184365, -1188860241, -1010716916, 303823343, 1347239418, 454997363, 1009417051, 1009820023, 328186248, 971896871, 69869323, 813512159, -793409848, 71668469, 280988482, -240447901, 662672468, 579666423, -1597688497, 1872686807, -475431839, -756117002, 319374989, -1323616291, -1233974687, -899738624, -1123879152, 401703911, -871768933, 1491790359, 732716660, 1428046654, 1693058118, -629668308, 592567550, -469960906, 649850044 },
    { -1029679248, -218207466, -935015207, -203635925, -141228771, 84087435, 1344066203, 707208802, 927827155, 242743765, -134403700, -1074424966, 527797281, 184888797, -196619091, 320580601, -343885195, 999831117, -536984124, -183682679, -862843433, 740566861, -47837868, 614623845, 219640911, 491022020, 704892070, -847158773, 308651477, -1094316648, -556388657, 609682146, 366793755, -790761398, -930791665, 49565308, -708509117, 530683987, -812795586, 234265954, 1544149696, 262715136, -1209888058, 1628773649, 965029396, -566821003, -233132713, 774301426, -200396879, 372860405 },
    { -592681850, 301599979, 709231301, 1130017028, 1018408726, 741744007, -346944887, 743051721, -1142052030, 407278913, 145834407, 741188345, 743727752, -798230826, -811204140, -501850221, 1073790275, -329087689, -672213024, 502499167, 1102885145, 320915739, -782729068, -579499889, 344271666, -129530084, -518915028, 405073684, 620769775, 848566304, -131390111, 149252084, -1580881816, 501583594, 39568893, -834889686, -533597356, -344573917, -1265888288, -878286884, 1186988920, 478130240, -795865256, 807284845, 520420245, -445010437, 566987022, 1167350017, -159440617, 1202821877 },
    { 162644486, -1901732851, 1579448950, 459279433, 397306402, -964437792, 100208414, 811276967, 74620345, 117055730, 953779018, 208324206, -313065064, 1359096942, 1089948546, 473282670, 39710934, 1020074540, -46440982, 268745669, -1055559977, -2517597117, 1536012247, 1100423623, 212026516, -742084839, -297737431, -307600310, 546374216, -475710592, 235100359, 295975953, 784886499, -121252399, 635613292, 1563356789, -639109900, 475318680, -905434456, 81575016, -644763586, -568371235, -507113691, 339416195, -777627653, -1071256546, 518673327, 1693692540, 2006224656, 916067462 },
    { -144717297, -576210601, -387562363, 262715125, 428304271, -1134469027, 995513596, -1179031690, 61852289, -2621398648, -219336270, 552310721, 1162221625, -336543674, -233090527, -260189839, 327655197, -866442605, 199123542, -1197230855, -258164753, -395559735, 811838853, -732914606, -625315918, 375635356, 1406593651, -697262762, -320864982, 1060380542, 1636024006, -125856724, -101788960, 32884629, -1072436243, 542173376, -11640433, -296951973, -2333951242, 466710508, -605289612, -1142446562, 41903422, -1007175446, -758211241, -246934444, 1072886832, -944220419, 689700902, 221270370 },
    { 1116427385, -441396376, -418572730, 908915337, -775352976, -315149013, 290227496, 1389462053, 789203620, 651894488, 1858913631, -589125915, 710828230, -94883984, 922808945, 297732039, 393160827, -1156439553, 1698930622, -952278466, 111872691, 67810111, 143368966, -1014156389, -539755579, -466910210, 709542905, -216163756, -657819598, -431343635, -902090386, -182056084, 425338037, -360697323, 1270969562, -865320836, 1146334256, -696934811, 198679050, 110440316, 86621780, -559836132, -1030467562, -533194008, 353808, -1447526628, 1131266297, -379096458, 746474684, -96973387 },
    { -738681421, 1549175200, -163405934, -755547396, -944823041, 406400423, -281470263, -168185877, -737137650, -282175719, 146493594, 215824012, 1025864321, -1024487582, -19021555, -440324998, 137154114, 1687716537, -235533951, -1168668569, -454798350, -132596846, -1070667169, -440268822, -342079810, -82434126, -830909939, 1218363107, 2032928838, 170771647, -580389009, 238953785, 1567025368, 1039318510, -253623418, 507380566, -560450067, -402748486, -437159491, -1606465379, -1114653250, 393694924, -13681455, -434726167, 650130723, -1033655251, -176965195, 1167198187, 200099889, -565104340 },
    { 448799713, 435731218, -305916839, -1730219130, -1674562879, 495774047, -616905410, -382540306, -884934029, -513245675, 956139856, -946418313, -353762223, 1170548917, -876720691, -305098330, -733320258, -507402342, -1379449207, -380625024, 547623968, 451712150, -211193012, -606705691, 1627172511, -42355946, 1557003164, 318804518, 742408963, 472394690, -1259881486, -447135001, -75190906, -1451124077, -796116894, -1309993306, 320032146, 1216811683, -672059781, 853994824, -158817124, 780858212, 1278753571, -381031446, 771459987, -562175343, 478116422, -377590141, 139050867, -228023677 },
    { 559634241, -888557882, 1676173251, -1623348994, 660180028, 300087236, -58652095, 695391184, -791509622, -503087468, 1600980933, 1478297345, 102449753, 254290067, 689004952, -44328656, -913345356, -660747727, 977127051, 800237696, 435780018, 688921598, -510606653, 832314552, 581971196, 422030919, -244140675, 1345267941, 59316379, -213737909, 96325721, -249337713, 409017119, -362864688, 1022029129, 1867885460, 1236119513, 288188938, -737748803, 789902097, 1078291505, 183991370, 734950611, -88785051, -1519801708, -1071312418, 801833899, 1830272266, -1698320177, -342313219 },
    { 1246057892, 38462195, 56789155, 1238812512, -1298865481, -981718615, 73110568, 1531011055, -1067251188, 620784655, 12577337, 920450063, -10492696, 616044630, -1726852473, 166894598, -42588169, -316924160, -669156402, 480060677, -297949220, -1834952798, 147524123, 760544079, -730646330, 243798624, 41234261, -1081346884, 676006958, 336896547, 887093266, -1203738029, 123323886, 151542368, 116343567, -255094468, -789878463, -293003047, -509323692, 501447907, -796318200, -187061733, 1498282279, -1125902701, 705926739, 166763782, -786558146, -539825584, 354738868, 83093632 },
    { -1525127006, 114030321, 344649489, -325879147, -506129938, -1176374190, -1232522268, 1032022189, 1029840474, 414677571, -1500282223, -61034367, -1006098475, -128547912, -460651801, -74102852, 938548347, -219945380, 1139142396, -995143831, -1516003290, -221020760, 1231264498, 929742040, -1138886551, 756746204, -1513740295, -773882200, -280183433, 101632439, -611438004, -2536781214, 816311124, -1020502806, 1056500538, -1677091388, 1638506676, 1957852299, -401442570, -344349315, 543516568, -894516119, -1068918216, -718253537, 825492730, 1201346901, 241752723, 355881459, 510592473, 142968703 },
    { 157038812, -121184922, -386993879, -810446964, 513886297, -348612440, 869819824, 1186220788, 941405185, 275497727, 624054066, 119964711, 697999962, 428741859, -200095054, 1268000560, -784974347, -1014022388, 53837277, -195366446, 256153859, 1414287364, -732271127, 622163096, 1388486775, -251886339, -646128182, -485134274, -874931402, 789113651, 907126085, -74551570, 681252873, 1327542858, 1202150487, -1140178654, 438392421, -431546068, 119600023, -314746031, -986139303, -1022268964, -1243827755, -515114960, -978152401, -1237434918, -510626916, 389521726, -256433108, 576607485 },
    { 423646712, -952082380, -870562635, -92898808, 305310875, -544005697, -1051647978, 816776767, -82645745, 561105238, -834712537, 1235584047, -222696280, -536640280, 1267821955, -547116637, -512580185, 738322870, -736902017, -832009510, -188916189, 633258586, -220940123, -64245414, 1564299752, 919198699, 109529714, 589125299, 62736034, 1089632050, 948134879, -991031516, -10817896, 783842535, 745846117, -260427710, 949890822, -2203606841, 135120681, -1163097455, -845008494, -773685113, 133198874, 997337562, -540926840, 283961644, 500936834, 1688613786, 458218835, 727900022 },
    { -363876494, 2061230848, 597186167, -276061802, -1397195773, 747515536, 313130503, 309332308, 128420707, 267627367, 207956216, -770804766, -1472129522, 1350864177, 225407103, 1025815890, -49064650, 595301686, -322366841, 417651555, 789425205, 181851039, -344854786, -192692126, -396429384, 1859701486, 207594141, 1554302601, 805744622, -1310504146, -332998568, 4281557, 1676940793, 693147929, 615508450, -15868951, 696754382, 279687935, 44023212, 575723846, 353626650, 1546562841, 1894996935, 332899271, 1295536500, -759480383, 862886424, 1457801372, 133978957, -486144040 },
    { 1191751681, 1698793, -47506236, 360834622, 116687019, 424779929, 772108380, -491628049, 635803180, 304716787, -373133366, 435348786, 241259539, 807760737, -1026965128, -1513117513, -991139073, -74867911, 1147531016, -406193204, 1200944132, -992791693, 708949890, -593518838, 88454993, -351221259, 466027219, -1379110907, 1343595922, 49516113, 71127906, -614969589, -371811137, 367686040, 1307892396, 1238993327, 72665010, 1169546161, 149368459, 240169796, -488058782, -1674657918, 717758022, -408937683, -1038535416, -756571537, -792827233, -8548474, -1352830487, 414487723 },
    { 519765314, 260949820, 472635920, 377003479, 306027458, 784239218, 770620823, -1295384782, -665891543, -248596575, 728193157, -408870568, 489015409, -382371301, 1108101806, -266763002, 1092186884, 1588717877, -273270910, -689431165, 1139603847, -2163184854, -648597268, -762604107, -1386686125, 498680610, 389950107, -623586451, -558824236, 1055582980, -315302943, -1454790475, -617941284, -884090767, -331405326, 1619549029, -2293538244, -512438996, -1178859250, 152144532, 131750336, -1076778175, 131454517, 415725717, 398613116, 225498651, 171616036, 1195794258, 1122618248, 298664616 },
    { 222613691, 1769202623, -290763544, -956172726, -1171460162, -82074177, -228624906, -502480691, 6662255, 44259867, 704062634, -591573816, 1209382284, -407271669, 823581071, 802780656, 1222394279, 34600417, -2057744614, -775861858, -472623725, -472297934, -1721262750, -208092940, 1495093427, 1634280564, 981215832, 446522261, -520326544, -1036186507, 389559550, 297811627, 296768889, -78178902, -350776362, 276627981, 97720276, -1049369759, 285926405, -99474060, -320452030, 662470376, -1737010178, -584846299, -139655133, 1593075499, 45949937, 622086839, 128369427, -194545449 },
    { -222248349, 778543269, 649493912, 638420540, -470709338, -891321683, 526038440, 933322590, -705665225, -822421988, 6096614, 419055699, 461256337, 399289592, -1777578426, -179357487, 366224020, 1854754856, -889780626, 1163852034, 320611806, -827488469, 658726529, -183555857, -1604407179, 104051282, -1200694060, 198345685, -481064484, -701488147, -445754025, -874833327, 333901578, -30820125, -236358432, -155817136, 369661268, -110128675, 237346290, 567918610, -232565307, 430207099, -289990374, -335496333, -6396870, 746853418, -494301005, -303416781, 445236955, -1582898286 },
    { 431200732, -1090977043, 470499704, -1040688699, -399153201, 1283355982, -364214917, -1337159116, -501756405, -283778991, 398611574, 561421097, 196800984, -557691387, 512662668, -13057638, -1399006822, -927905647, -403996296, 500429325, 1248121840, -774887330, -384679803, -54066897, 20242317, 158399426, 686530645, 155272980, 1219479963, 400171850, -534560816, 1052808424, -867107635, -292356087, -32981557, -641900697, 530611427, -1444891959, -834707420, -813832709, 387970375, -1265291341, -1090661886, -576203149, -501300420, 2811392, 84054618, 40891157, 498285790, 129705 },
    { 1691016783, 1214318807, -468125543, 138763940, -843733091, -740424260, 212672905, -702978608, 771903324, -220263167, -677721316, 252092876, -390583778, -791836963, -799697308, 1347458337, -296423090, -189041401, -968649591, 1268599726, -776189040, 1027930105, 1154534630, -376666710, -342353723, -45608196, 2462216034, 500608364, -76692502, 1059815802, 1288129703, -288028025, 587802777, -300612064, 1596137735, 93677112, -824670598, -310630453, -373286054, -778695301, -631856509, 1081574836, 19331550, -197610067, 571545551, 1154786933, 480281991, 121564460, -101998435, 1842525402 },
    { 201161321, -669181528, -1396379143, 1134864767, 700210121, -522441969, -627407950, -590048085, -1368866494, 847465196, -451040630, -181201063, -170238495, -880894350, -1252115821, -551509881, 1403405331, 217966284, 1271493768, 406480214, -1357802462, -398739291, -1001049028, -641741216, 293973474, -136550860, -395271784, -547469175, -1650566627, -701466128, -675292020, 984434180, -669513202, 739840762, -1933686457, -216659010, 842596371, 1409092448, 449631298, 537519336, 1121429078, 1266725685, -540385003, 607472731, -822060972, -121060535, -775519624, 527209828, -1438961608, 50637169 },
    { -353101157, -294616755, -274670538, -802952681, 211035993, 1041427628, -558624840, 787681225, 111841679, 1564388588, -1196047249, 549616359, -670664175, -1469444213, 28343656, -691619513, -1101233358, -112982595, -703834088, -203769737, 160329891, -352921933, -513003297, -1103621504, -1798060950, 896041314, 601189596, 867060578, -1209347316, -584849395, 366683214, -1595735023, 347936043, -814856071, -978839398, -519646732, -951184946, 625822750, -1164163429, -828773192, -130539178, 733167224, 727027038, 968862363, -642927865, 414891625, -282946924, 810000051, -255715765, -373752905 },
    { -1180727757, -366455505, 1212964327, -437756485, -1242694976, -1061872513, -1627514948, -1242028359, -899116269, -128337097, -510483720, -389383842, 976034235, -401744265, 285330198, -524602176, 1348604846, 598533107, 1616459952, -274846696, -60644076, 15409316, 447946225, -8046392, 1020193780, -335511369, 1788681103, -899022747, 81244819, -57520024, 1076280891, -123979551, 630519154, 297451443, 1144193393, -316464078, 306934563, -1639519301, 1099130624, 303471794, 34017914, 1561842939, -18307558, -330916000, 1930231307, -624201900, 1997535404, 1635120747, -761067255, 1262887377 },
    { -1215287836, 2271694385, 57505137, 670039815, 111619742, -1157355101, 228106307, -676090824, 156723823, -565173923, 956046562, -289876066, 566060211, 36582908, -995360821, -121878249, 255034552, 670983056, 615200753, 1127280409, 114595595, -707153554, 680385005, -325850208, -53563551, 621253594, 243885120, 650887797, -639929556, -330455135, -335116617, 902050470, 84648167, -1259075146, -287631067, 609424819, -422729284, -115866626, -1519907133, 481053280, -102117610, 340106234, 808174286, 958821540, -709302498, 419238304, -226853862, -1061987751, -1043110159, -1125759827 },
    { 1323874628, 613174169, 585992475, 31811718, 323490838, -79226951, 342223017, 545248856, 759313466, 483434044, 420928646, -1800469386, -393421858, 1281500635, -514245504, 895370910, -1259723097, 194092359, -94839828, 436969340, -1873113306, -371510118, -644873246, 848317268, -647031895, 843158782, -241260924, 569478049, 244847333, -689992020, 986266301, 797705892, 61849445, 478116409, 240142981, -1647938057, 1259443899, 860103259, 1509256798, -319181924, 1819954305, 1564486614, 445370236, -988185751, 893910714, -15373089, 741823271, -358997599, -705489818, 394537960 },
    { 1153617834, 1534645145, -344928225, 139810135, -334564768, 1377706210, 396229813, 1027713482, 1422932577, 968758337, -852148448, -493189152, -1006982430, 1217030615, -1342429204, 96618538, -37975251, -435009080, 105499968, 212978168, 50592652, 381914508, -1038453396, 1197568894, 678966309, 290650737, -1839746236, -1439292469, 907764660, 400782386, 1871563177, 919816756, 283390984, -748373512, 935900943, 1404045777, -1578926937, 788378642, 911079405, -628873580, 184572832, 439634306, -566939003, -492007570, 637528570, -318917864, 2184392641, -1573052512, 985421967, -42234725 },
    { -1838246315, 440587635, 108543499, 751860052, 983249894, -1220972610, 352500392, 170068669, -310806924, -64587913, 1651175020, 1503224924, -788595966, -40672425, 1197095200, -242839943, -344680663, 512974510, -1378778934, -348255204, 55137543, 1011273954, -904277800, -316483039, 516895807, 140904490, 344763782, -1437786677, -650221334, -1541216733, 397525648, -306898166, 485248796, 1734322429, -1642093436, -1249620589, -786819926, 1428215610, -415151026, -1765618420, -1030700609, 75222468, -436384149, 1483071901, 136266359, 1276520634, -899570356, 2058560524, -1277443217, 892644612 },
    { -29600492, -793701282, 712397288, 903679462, -1206812655, 1008318900, -106780185, 212711609, 1100017545, -1258645798, 43169508, -667946926, 923058247, -1973240551, -445756078, 806179353, 953474795, 308761163, 1995451080, 408318786, 17257477, 98164466, -24318922, 1273144209, 1003539900, -348560883, -2683337810, -233344881, 426677200, 282962894, -749763678, 927954834, 38136905, 194326868, 360608731, 518846306, 947808687, 1139350924, 407319603, -1739672720, 525053410, 548646379, 361059733, 1729555446, 55053077, -246132873, -1802157455, -257182653, -1459220341, 152220123 },
    { -1300798799, -1350113396, 151734729, -806522460, -591821557, 1081828828, 21978459, 209599549, -238414936, -1372239673, 518826666, -287790946, 701426572, -544883474, 9798386, -74975656, -1010337806, 697548700, 2104811339, 1781954928, -636935814, -912131207, 270072265, 888350666, -1058952968, 495593911, 398445141, 413103954, -822944458, -613166099, 1193448992, -231837774, -692496843, -1292481152, -195011277, 978205163, 149468257, -739331029, -492777457, 905612149, -800543407, 570988261, -1085728331, 504853778, -1035368609, -477905492, 1405934447, -379746316, -1169785897, 33830981 },
    { 436191860, -1386374052, 912979254, -309164866, -1196887419, 189207682, -2018291391, 55905487, 121497978, -87721379, -1608535988, -559247585, -571133722, 1923092109, 1089458833, -1337199036, 475660446, -1401224192, 2768537744, -1189582516, -531220622, 235038359, 947661005, 1575076267, 1997586178, 437301716, 1663009362, 115865630, -201086579, -45744310, 882974598, -73959366, 734824966, -427702181, 544193066, -1253139615, -325973425, -240593207, 927998836, -198790019, -398843633, 366652783, 1148633599, 470108231, -2097089936, 499987379, 114275460, 1167727325, -197684025, -43104758 },
    { -404563111, 400458693, 828174768, -512672898, -242571001, 746480670, -813586656, -456246305, 188313356, 1362270051, -301744476, -823552172, 15828960, 335545131, 839641223, -836756568, 795358279, -968641712, 891383636, 790236140, -1223542133, -847300515, -1070290804, -1486995772, 1080527237, 260131584, -649656934, -91084102, -935111194, 900489490, -216915185, -1069715695, -1072329463, 1164382764, 75467798, 694967185, 118460988, -749163143, 181539544, 1522750044, 1069925442, 139307265, 1286511358, 148053273, -1005920791, -893480736, 1045250341, 1678401932, -199310030, 331135693 },
    { 119904882, 1815280990, -478924683, -116315738, 1135488396, 756894514, -359589158, 874873773, 758962906, -1700345914, -1358125650, 330160001, -497547934, 1035332665, -128826475, -273593826, 8648544, 364001681, 1329396888, 2138037947, 571223612, -777534226, -1155882045, -456792582, -375670443, 1098449644, 217432738, -305907594, -136921990, -491611804, 630876334, -241417717, 753985315, -660451040, 6718980, 32519815, -2325321, -421179562, -606635374, 185174117, -557245264, 130024636, 1847001513, -587160801, 228946830, 214657556, -43368888, -1250558797, 666960337, -424568297 },
    { -548598913, -775674028, 510093231, -591364803, 531144359, 231543104, -75859081, 415297792, 520455123, 243324000, -749391805, -138686994, -84972844, -223092225, 249026968, -988318773, 604145915, -1877594538, -698372965, 1024981720, 453743089, -1058972822, -288060593, 447304044, 1891945820, -229408717, -920577673, 335161642, 1219291049, 40995508, -77669098, -12952751, -871465215, 31883190, 558520104, -498481834, -63625055, 1548755700, 709690664, -545181253, 1128520685, -1141704669, -8135458, 197127152, 590380810, -726604667, -150627867, -539377747, 621680483, -1184556256 },
    { 499409062, -336294687, 1191690367, -27979664, 103251051, 503998443, -1064301316, 754719439, -1161217425, -138093743, -923755252, -348695997, -1852181925, 177099991, -637275892, 197899155, 353717780, 116051464, -461137194, 759280499, 966754814, -68615669, -116920408, -482517008, 615516997, -922430901, 436002979, -168227992, 1277509346, 478764855, -722334068, -12689365, -357911906, 1421859612, -57242573, 1111058752, -463441747, 1281552784, 687678067, 55692775, 664962465, 737375064, -220456581, 1634757570, 758038736, -176675035, 459970196, -302830176, -629963131, 598914717 },
    { -884528083, -299046324, -700213783, 561532148, -721428007, 1037040778, 594142273, 231838702, 198329713, -21988327, -294857285, -608452083, 189249466, -1481709874, -623678437, 965787862, -1905338042, -344414492, -477845061, -141460061, -16464621, 906886949, 229269130, 253542284, -398534925, -162322210, -639596257, 391753530, -1344714634, 322814859, 1068953287, 1417472334, 709734353, -270639017, -1315295062, -1334247568, 376288020, -228977688, -340267592, 909971010, 10318137, 290432878, 778236215, -415411461, 1729288957, 596563783, 1569798295, -240773767, -341819685, -215163528 },
    { -445087565, 1033029984, 553850515, -163484494, 1606449516, 254544218, 515523644, -1175493964, 857454278, -1013445461, 81621048, 234270112, -311478276, -156464594, -1853940751, -1474317238, 1181010462, 306824967, 422337601, -352749286, -914078113, -1380778337, -261002789, -487001408, 347301223, -10663389, 123366472, 333259593, -427447974, 259204872, -19715712, -598441948, -333567705, -1496534827, 573630504, -1145189730, 102415815, 715564168, -654733626, 63800550, 2022187139, 1539888498, 913402677, 1261456162, 1040203961, -380753846, 904285674, -1047343883, 919697067, -434590937 },
    { -1578920676, 126900164, -851563058, 891624893, 728741722, 141656516, 1377067793, 684961996, -706344017, 68037427, 197615327, 980600348, -441127357, 308034594, 362749808, 1356725611, 1966785298, -32004007, -1002703548, -675415591, 196455675, -46214909, 359934963, -1177183588, -388319097, 881320044, 548525332, -742820036, -385987116, 340892453, -682168857, 642726518, 330880178, -478726172, -225705175, 496653243, -996246339, -687264999, -308138689, -927840188, -1491113995, 637487823, 2057051215, -1073900616, 657270338, 230867422, -1555339580, 8527553, 320809538, 154696505 },
    { -462201728, -1084032593, 1668254073, -236830995, -324564073, 1222580207, -311641610, 1419025268, 863254934, -186169102, 367290501, -109546153, -634289445, 1696783857, 654506795, -866675481, 687965821, 1289844471, 478486655, -432228202, 1319162201, 226660956, 912696117, -984859814, -1203171214, -561854111, -920348008, 319400655, 279080183, 1406515291, -385206217, -1025235084, -665005500, 468223396, -171098838, -356218825, -409180652, 206413893, -279735119, -33386964, -146618025, 1396761492, -536034627, 332184185, -1578370894, 780888814, -1164180976, 1045327779, 517637334, -1773300220 },
};

const q32_32 B2[70] = {
    -682669, -345655, -209933, 422916, -350779, -401391, -4522080, 1117887, -245129, -247161,
    -814440, 941566, 1884219, -1767230, -659035, -4051608, -2606380, -525503, -5117205, -2122238,
    1471757, 995192, 1038946, -3254748, 1455512, -5396472, 2428867, 460552, 1525612, 2702896,
    264738, 732224, -1000431, 1105284, 2528922, -1134211, -3218, 2566849, -650921, -1737019,
    387428, -2304511, -546931, -365935, -3184015, -2023543, -566582, -833857, 1262375, 1666948,
    -3403851, -4623561, 1501136, -2030190, -1495522, -2124821, 4756036, -614152, -2412440, 3261533,
    5416550, 1441598, 769440, 128982, 8079548, 121552, -391880, -1534440, 3105132, -3343679
};

const q32_32 W3[11][70] = {
    { -106047037, -1406381165, -1019178779, -66044713, -966312336, 41514030, -772236669, -140645997, 398343604, -708012618, 855051558, -100146866, -724803210, -442837120, -80354536, 449187314, -320670644, 602140397, 128361942, 89951174, 550063306, -127061254, -377645989, 512348909, -298209658, -1396252404, 1370299352, 1268254270, -1151152829, -181865322, -621199232, -665212656, 132964133, -347897172, -635756542, 493122111, -168437412, 427730717, -47249784, -665106796, 659238818, 397601156, -33803293, 296742393, 230004039, 1400299386, -976268239, 609485297, -60034155, -93075011, 480263274, 368632267, 2012864158, 769704577, -657170631, -40790058, 667351117, 1252876961, 984939595, -377039551, -836862860, 148860741, 131138192, -290603828, -1045424349, -453767641, 1069697812, 492212012, 520304876, -588069661 },
    { 3350828, -142411391, -961391619, -101560781, -38674351, -1316834811, -528779348, -396939676, -258755352, 511700317, -1144720875, -391081827, 412922313, 1143113661, -796524150, 395403603, 894732433, -352693578, 913164794, -38953693, -98778699, -1021545458, 116356803, 162660949, 62634334, 1398529762, -365954942, -228313448, -1017709996, -789256429, -936954949, 288371606, 1370100374, 1028504705, 834136871, 1361623114, -1247377155, 1491479558, 1130242579, -179851843, -82984503, -582636967, 34295211, -1542544119, 155889874, -39887110, -650068501, -600621651, 109533359, 1368344998, 130490140, 710847958, 349152795, 688157109, 400876720, 565418947, -88994091, 373077618, -774280177, 47052843, -385116026, -692863081, -766631394, -712894745, 268070577, -25806116, 813685068, -150243801, 130623699, -163852703 },
    { 787246118, 253140623, 14062013, 197480438, -348319298, -1842071558, 825597359, 63549995, 1114727541, 1169215616, 499072907, 1123077653, 969767235, -419296586, -9398360, -1020773232, -975175187, 79096171, 1635372736, 218728065, -853482471, -1414641452, 211936288, -422933559, 934223870, 313363201, -348176812, -563674820, -872343163, -231319226, 613689008, -812114443, 80441116, 344605408, 278393438, 174479123, -537853818, 990830367, 247193917, -1221576548, -16496242, 846130686, 164494397, -522363358, -227995346, -683186513, 413309507, -1581904775, -359425858, 1364646765, -311589487, 280103503, -844734435, 241468138, -244707263, -983919676, 242195518, -507216412, 243079247, -7217138, -1344260852, 198653079, 988101794, 1079747132, -1271427707, 267339964, 311742820, -690188592, 456672048, -1244938810 },
    { 294681936, -395979053, -1449188536, -119082077, -724500715, 103743109, 770716142, 524173618, 623379169, -1724595536, 931432706, -588130848, -623854525, -992086034, -943069019, -544069332, 1845107374, -905029905, 933737424, -229121535, -787188526, 738522828, 231662016, 212224563, -471388773, -128317004, -573112534, -153273800, -715661703, -1607142995, -564647499, -1132115302, -154324256, -143697840, -409331395, -149316023, 167765328, -636438651, 1285298964, 870919029, 220567094, 465646022, -324419368, 1123854693, 788337926, -158307484, 364398371, -810910819, 423926642, -992400438, -883099440, 1395004282, 553728868, -318759157, -9292607, 80812066, 1336489005, 117373521, 730057009, 636891260, -685858474, 26774579, -354871147, -1105080692, 625572302, -1294932542, 651347770, -180234487, -647438970, -254017634 },
    { 402336182, 154021784, 105926409, 229072436, 1082712877, -325247759, -1839332444, -259613659, 1838294879, -96454669, -392403392, 224550185, 478497451, 972616461, -338903449, -1798356034, 344990211, 677157472, -1242759275, -650569083, 66817009, -894626648, 553492770, -143748430, 1006304139, -252006442, 95559455, 183414316, -1321401949, 1035365948, -926100102, -850025058, 1225084074, 149448243, 1306556939, 592715474, 354433956, 762375564, -318799451, -1130628702, 377199837, -961351234, 257637588, 540051918, -946998458, -37355562, -1212883733, -387220226, -361649269, 418100516, -332078624, -511543649, 535285363, 246507957, -251132333, -1234821503, 1262434654, 830855267, -243482709, -11273006, 1811835845, 815474531, 442444909, 971129959, 2040369712, -574073265, 435122832, -92237692, 2163017569, -841008597 },
    { 79859563, -1017115798, -1094252404, -169563522, -477230207, 619320068, -123866119, -184740939, -288601876, -1499300212, -317911730, -433450105, 598107896, -1382871050, 145792816, -518675079, 1526841131, -423764956, -329469855, -346930216, 1520983457, 830039898, 89474277, -349819362, -135429090, -796596835, -131857817, 1192414747, -1205938923, -415225407, -913726640, 70032997, -509986813, 426281896, 606460067, 578639843, -579339084, -1281675024, 714962211, 638205540, 458381726, 693665222, -231125798, -270595721, 432825322, -363090757, 447497795, -977910177, 406188091, -273066428, 302099137, -840185308, -761443805, -80340028, 902605078, -141817507, 294215134, 923253286, -627682900, 120174652, -823508396, 345509369, 95916827, -77254932, -274542758, -1848881097, 69501825, -687741463, -600802503, 1302679065 },
    { 377425106, 56600204, -9208484, 715751312, 1816753312, -497778874, -53503170, -290193007, -638545453, -99190130, -192995468, -385838635, 238802646, 1052312424, -778027272, -1197960743, -585944559, 377470158, -19945831, -950748543, 440520798, -372925863, 7642931, -34235126, 1393924449, -1683655293, 1346468666, -799361497, 1029869352, -150222667, -1046725594, 346323689, -735022754, 280856135, -9903685, 424167305, -376382138, -74012333, 59190898, -676569656, 1914864811, 28575154, 631193783, 49604358, -355255107, -1408238397, -1153276341, 271743836, 208175958, 1341424759, -1019163164, -183402305, 373109079, -284548333, -672037256, 230770044, 1070939938, -128413376, -376457977, 1005686151, -1725062945, 784055819, -660778932, 194125118, 345001042, 705899707, -795302916, 314393624, 500296931, -876206785 },
    { -776684826, -464776892, 629721253, -1198108840, -660117943, -306742203, 1226024916, 313899013, -901856830, 1084479522, 786938229, 1116066646, 122515023, -100171683, 332731369, -191047202, 284355930, 498035181, 551211447, 100096135, 89387314, -436319940, -459252426, 583775600, -180600026, 608710007, -1205457479, 96157550, -938811501, 1172831157, 879936682, 94002135, -106510432, 567616398, 343542353, -217363930, -1241602467, 266035376, 481179516, -779174645, -480507354, -1096017, -255976906, 170611162, 165919138, -54341579, 717604625, 380420497, -593257145, 361821618, 203928164, 667034683, 618426065, -1203092368, 1617468494, -76889386, 272904327, 1425702710, 1457060381, 80091215, -210214950, -452698421, -442228267, -371983839, 202639789, -696943695, 915391708, 200251413, 817968776, -689674264 },
    { 1904382, 1068060882, 447858318, 787142777, -582658282, 251066551, 2102217390, -813158890, 268848430, -1032749868, -167984969, -652283075, 489830812, -839108502, -69691461, 158140749, 231688086, 267739563, 57107962, -88815685, -666216171, -595147714, -926120659, 164501319, 1408143369, -3436600, 531839627, -351653463, 329499086, 838020829, 206356784, -33953204, -722909491, -1003467722, -313997469, 1327233048, -411689398, -2576760192, 89646229, 461865219, 546631918, 987143506, 799925641, 920201458, 1065372171, 53564682, -349879967, 490399737, 817644948, 78981543, 354608619, 323815379, 703296109, 214256175, 586195269, -936581019, -596574457, -1435503518, -7388497, -175122585, 1187721965, -316459418, 280889365, 102943927, 720486533, -1619408283, -360341366, 953185831, 789719545, -98063615 },
    { -1376462503, -827854305, -256088329, 388961978, 305400358, -1131995720, 1169608457, 781437220, 238422829, 787016167, 434518128, 7567654, 602824800, -216334029, -374752489, -433641111, -463690808, 667588727, 1176489109, -970806512, 200588796, 213992343, 61158615, -1119973572, 43655619, -192178947, -730878113, 203973437, 834525403, 43013245, 279407522, 671508106, 781280181, 512429354, 37321558, 746253419, 909076984, -285113354, -609848603, -923215063, -1256674466, 453947358, 418338698, -127018012, 136816384, 126489103, 65199815, 749646079, 534135602, 182288848, -588688037, -645774546, -183828320, 374721873, 69195671, -531965023, -649394973, -166118053, -1043458692, 382699063, 411677609, -104888222, 202319962, -529700507, -539994672, -1311817678, 11146853, 411938065, -254031266, -1223318674 },
    { 165919342, 175504, -149285660, 537298630, 811194833, 612853546, -793552599, -150010823, 584982568, -128536713, -124816230, 676279189, -154100220, -296566349, -85209426, -169144655, -652243863, -1171643276, 203475654, 593855000, 238815207, 46442527, -858385369, -985588425, 904491161, 298516547, 27038301, -1289531376, -1422849881, 351545774, 1376422490, -744652767, 1314343069, -592841109, 157694570, 539981864, -632149393, 1100561415, 487837655, 290185719, -302095327, -667456587, -1088068688, 29632832, -259047367, -94443901, 76225627, -934948843, 1254268053, 257862892, -449457499, -579402393, -7348931, 365425404, 71540097, -375205051, 877266534, -556149715, 74792051, -782128266, 682662041, -222598513, -864018604, 590887852, 1472148724, -372673013, -1235410799, -743110141, -231873219, -235960292 },
};

const q32_32 B3[11] = {
    -2627517, -7095954, -3041485, -1686810, 9787580, -132383, 7938514, -1221933, -8547041, 5786827,
    840203
};

